Language model created by QuickLM on Thu Feb 22 11:08:06 EST 2018
Copyright (c) 1996-2010 Carnegie Mellon University and Alexander I. Rudnicky

The model is in standard ARPA format, designed by Doug Paul while he was at MITRE.

The code that was used to produce this language model is available in Open Source.
Please visit http://www.speech.cs.cmu.edu/tools/ for more information

The (fixed) discount mass is 0.5. The backoffs are computed using the ratio method.
This model based on a corpus of 9 sentences and 11 words

\data\
ngram 1=11
ngram 2=18
ngram 3=9

\1-grams:
-0.7782 </s> -0.3010
-0.7782 <s> -0.2218
-1.7324 PI -0.2218
-1.7324 PICTURE -0.2218
-1.7324 PLAY -0.2218
-1.7324 PROGRAM -0.2218
-1.7324 RUN -0.2218
-1.7324 SHOW -0.2218
-1.7324 STOP -0.2218
-1.7324 TAKE -0.2218
-1.7324 VIDEO -0.2218

\2-grams:
-1.2553 <s> PI 0.0000
-1.2553 <s> PICTURE 0.0000
-1.2553 <s> PLAY 0.0000
-1.2553 <s> PROGRAM 0.0000
-1.2553 <s> RUN 0.0000
-1.2553 <s> SHOW 0.0000
-1.2553 <s> STOP 0.0000
-1.2553 <s> TAKE 0.0000
-1.2553 <s> VIDEO 0.0000
-0.3010 PI </s> -0.3010
-0.3010 PICTURE </s> -0.3010
-0.3010 PLAY </s> -0.3010
-0.3010 PROGRAM </s> -0.3010
-0.3010 RUN </s> -0.3010
-0.3010 SHOW </s> -0.3010
-0.3010 STOP </s> -0.3010
-0.3010 TAKE </s> -0.3010
-0.3010 VIDEO </s> -0.3010

\3-grams:
-0.3010 <s> PI </s>
-0.3010 <s> PICTURE </s>
-0.3010 <s> PLAY </s>
-0.3010 <s> PROGRAM </s>
-0.3010 <s> RUN </s>
-0.3010 <s> SHOW </s>
-0.3010 <s> STOP </s>
-0.3010 <s> TAKE </s>
-0.3010 <s> VIDEO </s>

\end\
